<?xml version="1.0"?>
<opencv_storage>
<Car_4July21 type_id="opencv-haar-classifier">
  <size>
    50 40</size>
  <stages>
    <_>
      <trees>
        <_>
          <_>
            <feature>
              <rects>
                <_>
                  24 6 12 34 -1.</_>
                <_>
                  24 23 12 17 2.</_></rects>
              <tilted>0</tilted></feature>
            <threshold>-0.0904420316219330</threshold>
            <left_val>0.9555556178092957</left_val>
            <right_val>-1.0000009536743164</right_val></_></_></trees>
      <stage_threshold>0.9555556178092957</stage_threshold>
      <parent>-1</parent>
      <next>-1</next></_>
    <_>
      <trees>
        <_>
          <_>
            <feature>
              <rects>
                <_>
                  18 7 22 16 -1.</_>
                <_>
                  18 7 11 8 2.</_>
                <_>
                  29 15 11 8 2.</_></rects>
              <tilted>0</tilted></feature>
            <threshold>0.0198027398437262</threshold>
            <left_val>-0.8118320107460022</left_val>
            <right_val>0.8596230149269104</right_val></_></_>
        <_>
          <_>
            <feature>
              <rects>
                <_>
                  6 23 19 16 -1.</_>
                <_>
                  6 27 19 8 2.</_></rects>
              <tilted>0</tilted></feature>
            <threshold>-0.0359998606145382</threshold>
            <left_val>1.</left_val>
            <right_val>-0.7504938840866089</right_val></_></_></trees>
      <stage_threshold>0.1091291010379791</stage_threshold>
      <parent>0</parent>
      <next>-1</next></_>
    <_>
      <trees>
        <_>
          <_>
            <feature>
              <rects>
                <_>
                  5 16 6 8 -1.</_>
                <_>
                  5 20 6 4 2.</_></rects>
              <tilted>0</tilted></feature>
            <threshold>-6.4586210064589977e-003</threshold>
            <left_val>0.9073243737220764</left_val>
            <right_val>-0.8733819127082825</right_val></_></_>
        <_>
          <_>
            <feature>
              <rects>
                <_>
                  33 8 6 9 -1.</_>
                <_>
                  30 11 6 3 3.</_></rects>
              <tilted>1</tilted></feature>
            <threshold>0.0119037702679634</threshold>
            <left_val>-0.8086360096931458</left_val>
            <right_val>0.9239295721054077</right_val></_></_></trees>
      <stage_threshold>0.0505477190017700</stage_threshold>
      <parent>1</parent>
      <next>-1</next></_>
    <_>
      <trees>
        <_>
          <_>
            <feature>
              <rects>
                <_>
                  0 30 24 7 -1.</_>
                <_>
                  12 30 12 7 2.</_></rects>
              <tilted>0</tilted></feature>
            <threshold>-0.0109731396660209</threshold>
            <left_val>0.7176318764686585</left_val>
            <right_val>-0.9261131286621094</right_val></_></_>
        <_>
          <_>
            <feature>
              <rects>
                <_>
                  19 32 3 4 -1.</_>
                <_>
                  19 34 3 2 2.</_></rects>
              <tilted>0</tilted></feature>
            <threshold>4.0498180896975100e-004</threshold>
            <left_val>-0.8552410006523132</left_val>
            <right_val>0.8072386980056763</right_val></_></_></trees>
      <stage_threshold>-0.1376090943813324</stage_threshold>
      <parent>2</parent>
      <next>-1</next></_>
    <_>
      <trees>
        <_>
          <_>
            <feature>
              <rects>
                <_>
                  0 7 10 28 -1.</_>
                <_>
                  0 7 5 14 2.</_>
                <_>
                  5 21 5 14 2.</_></rects>
              <tilted>0</tilted></feature>
            <threshold>-0.0154751902446151</threshold>
            <left_val>0.7764961123466492</left_val>
            <right_val>-0.8031324744224548</right_val></_></_>
        <_>
          <_>
            <feature>
              <rects>
                <_>
                  27 5 2 15 -1.</_>
                <_>
                  27 10 2 5 3.</_></rects>
              <tilted>0</tilted></feature>
            <threshold>7.8963795676827431e-003</threshold>
            <left_val>-0.6472659707069397</left_val>
            <right_val>0.9214438796043396</right_val></_></_></trees>
      <stage_threshold>0.1183113977313042</stage_threshold>
      <parent>3</parent>
      <next>-1</next></_>
    <_>
      <trees>
        <_>
          <_>
            <feature>
              <rects>
                <_>
                  29 12 20 1 -1.</_>
                <_>
                  29 12 10 1 2.</_></rects>
              <tilted>1</tilted></feature>
            <threshold>0.0134601304307580</threshold>
            <left_val>-0.8538206815719605</left_val>
            <right_val>0.6745411157608032</right_val></_></_>
        <_>
          <_>
            <feature>
              <rects>
                <_>
                  34 12 16 10 -1.</_>
                <_>
                  42 12 8 10 2.</_></rects>
              <tilted>0</tilted></feature>
            <threshold>-0.0131013803184032</threshold>
            <left_val>0.8128200173377991</left_val>
            <right_val>-0.8156226873397827</right_val></_></_></trees>
      <stage_threshold>-0.1410816013813019</stage_threshold>
      <parent>4</parent>
      <next>-1</next></_>
    <_>
      <trees>
        <_>
          <_>
            <feature>
              <rects>
                <_>
                  3 9 22 10 -1.</_>
                <_>
                  3 9 11 5 2.</_>
                <_>
                  14 14 11 5 2.</_></rects>
              <tilted>0</tilted></feature>
            <threshold>-0.0123837003484368</threshold>
            <left_val>0.8496363162994385</left_val>
            <right_val>-0.7048966288566589</right_val></_></_>
        <_>
          <_>
            <feature>
              <rects>
                <_>
                  39 34 10 6 -1.</_>
                <_>
                  44 34 5 6 2.</_></rects>
              <tilted>0</tilted></feature>
            <threshold>2.1664830856025219e-003</threshold>
            <left_val>-0.7394760251045227</left_val>
            <right_val>0.7987390160560608</right_val></_></_></trees>
      <stage_threshold>0.0938423275947571</stage_threshold>
      <parent>5</parent>
      <next>-1</next></_>
    <_>
      <trees>
        <_>
          <_>
            <feature>
              <rects>
                <_>
                  15 25 16 12 -1.</_>
                <_>
                  15 28 16 6 2.</_></rects>
              <tilted>0</tilted></feature>
            <threshold>-0.0159954205155373</threshold>
            <left_val>0.8440905809402466</left_val>
            <right_val>-0.6560264825820923</right_val></_></_>
        <_>
          <_>
            <feature>
              <rects>
                <_>
                  37 5 12 6 -1.</_>
                <_>
                  37 5 12 3 2.</_></rects>
              <tilted>1</tilted></feature>
            <threshold>-0.0168147496879101</threshold>
            <left_val>0.7999051809310913</left_val>
            <right_val>-0.7457370758056641</right_val></_></_></trees>
      <stage_threshold>0.0983535572886467</stage_threshold>
      <parent>6</parent>
      <next>-1</next></_>
    <_>
      <trees>
        <_>
          <_>
            <feature>
              <rects>
                <_>
                  3 21 15 12 -1.</_>
                <_>
                  3 24 15 6 2.</_></rects>
              <tilted>0</tilted></feature>
            <threshold>-8.1856343895196915e-003</threshold>
            <left_val>0.8440905809402466</left_val>
            <right_val>-0.6560264825820923</right_val></_></_>
        <_>
          <_>
            <feature>
              <rects>
                <_>
                  28 17 14 14 -1.</_>
                <_>
                  28 17 7 7 2.</_>
                <_>
                  35 24 7 7 2.</_></rects>
              <tilted>0</tilted></feature>
            <threshold>-0.0155398501083255</threshold>
            <left_val>0.9201459884643555</left_val>
            <right_val>-0.6042919754981995</right_val></_></_></trees>
      <stage_threshold>0.2397986948490143</stage_threshold>
      <parent>7</parent>
      <next>-1</next></_>
    <_>
      <trees>
        <_>
          <_>
            <feature>
              <rects>
                <_>
                  11 27 26 12 -1.</_>
                <_>
                  11 30 26 6 2.</_></rects>
              <tilted>0</tilted></feature>
            <threshold>-0.0180292408913374</threshold>
            <left_val>0.7691736221313477</left_val>
            <right_val>-0.7458490133285523</right_val></_></_>
        <_>
          <_>
            <feature>
              <rects>
                <_>
                  17 14 18 26 -1.</_>
                <_>
                  23 14 6 26 3.</_></rects>
              <tilted>0</tilted></feature>
            <threshold>-8.6646834388375282e-003</threshold>
            <left_val>0.6500036716461182</left_val>
            <right_val>-0.9446830153465271</right_val></_></_></trees>
      <stage_threshold>-0.1755093038082123</stage_threshold>
      <parent>8</parent>
      <next>-1</next></_>
    <_>
      <trees>
        <_>
          <_>
            <feature>
              <rects>
                <_>
                  0 0 4 15 -1.</_>
                <_>
                  0 5 4 5 3.</_></rects>
              <tilted>0</tilted></feature>
            <threshold>2.8128689154982567e-003</threshold>
            <left_val>0.4915255904197693</left_val>
            <right_val>-1.0000009536743164</right_val></_></_></trees>
      <stage_threshold>0.4915255904197693</stage_threshold>
      <parent>9</parent>
      <next>-1</next></_>
    <_>
      <trees>
        <_>
          <_>
            <feature>
              <rects>
                <_>
                  0 2 1 30 -1.</_>
                <_>
                  0 12 1 10 3.</_></rects>
              <tilted>0</tilted></feature>
            <threshold>2.1977990400046110e-003</threshold>
            <left_val>0.6000000834465027</left_val>
            <right_val>-1.0000009536743164</right_val></_></_></trees>
      <stage_threshold>0.6000000834465027</stage_threshold>
      <parent>10</parent>
      <next>-1</next></_>
    <_>
      <trees>
        <_>
          <_>
            <feature>
              <rects>
                <_>
                  17 27 4 10 -1.</_>
                <_>
                  19 27 2 10 2.</_></rects>
              <tilted>0</tilted></feature>
            <threshold>-3.6760821240022779e-004</threshold>
            <left_val>-1.</left_val>
            <right_val>0.5172417163848877</right_val></_></_></trees>
      <stage_threshold>0.5172417163848877</stage_threshold>
      <parent>11</parent>
      <next>-1</next></_>
    <_>
      <trees>
        <_>
          <_>
            <feature>
              <rects>
                <_>
                  27 7 8 24 -1.</_>
                <_>
                  27 7 8 12 2.</_></rects>
              <tilted>1</tilted></feature>
            <threshold>0.1101128980517387</threshold>
            <left_val>-0.7458484768867493</left_val>
            <right_val>0.7691739797592163</right_val></_></_>
        <_>
          <_>
            <feature>
              <rects>
                <_>
                  7 14 7 8 -1.</_>
                <_>
                  7 18 7 4 2.</_></rects>
              <tilted>0</tilted></feature>
            <threshold>-7.0186387747526169e-003</threshold>
            <left_val>0.8560634851455689</left_val>
            <right_val>-0.6777179241180420</right_val></_></_></trees>
      <stage_threshold>0.0914561226963997</stage_threshold>
      <parent>12</parent>
      <next>-1</next></_>
    <_>
      <trees>
        <_>
          <_>
            <feature>
              <rects>
                <_>
                  0 0 3 12 -1.</_>
                <_>
                  0 6 3 6 2.</_></rects>
              <tilted>0</tilted></feature>
            <threshold>-2.9590299818664789e-003</threshold>
            <left_val>-1.</left_val>
            <right_val>0.5714288949966431</right_val></_></_></trees>
      <stage_threshold>0.5714288949966431</stage_threshold>
      <parent>13</parent>
      <next>-1</next></_>
    <_>
      <trees>
        <_>
          <_>
            <feature>
              <rects>
                <_>
                  15 12 18 13 -1.</_>
                <_>
                  21 12 6 13 3.</_></rects>
              <tilted>0</tilted></feature>
            <threshold>-5.4848538711667061e-003</threshold>
            <left_val>0.8171092271804810</left_val>
            <right_val>-0.8075808286666870</right_val></_></_>
        <_>
          <_>
            <feature>
              <rects>
                <_>
                  24 15 14 6 -1.</_>
                <_>
                  31 15 7 6 2.</_></rects>
              <tilted>0</tilted></feature>
            <threshold>4.2333938181400299e-003</threshold>
            <left_val>-0.9466586709022522</left_val>
            <right_val>0.7367337942123413</right_val></_></_></trees>
      <stage_threshold>-0.1295495033264160</stage_threshold>
      <parent>14</parent>
      <next>-1</next></_></stages></Car_4July21>
</opencv_storage>
